const defaultBrain = {"levels":[{"inputs":[0.430550903519069,0,0,0.488199211688102,0.6541931776587329],"outputs":[0,0,1,1,1,1],"biases":[0.6207234672610606,0.27966005944713956,-0.19249831564107417,-0.556412224656598,0.1546086759232078,-0.3900762393134356],"weights":[[-0.4679399638781479,-0.6185449581418526,-0.3166068173838571,-0.6343737789318891,-0.059784807876583836,-0.43259029483406614],[-0.2828652926807298,0.38764149940376863,0.15567664410516555,-0.6612625940459148,-0.507248850093596,0.6231021681541276],[-0.0460845529798009,0.5746401177843097,0.3655473455227271,-0.4643660554495091,0.7601437268738589,0.028497190242382366],[0.1983696698133504,0.38253727147734173,0.5263299279660861,0.20910927083264796,0.24891974725837107,-0.02862775554902381],[0.01088227593767814,0.33461218699466305,0.5863023315138951,-0.2399340975385978,0.14884856968958132,0.40963805189113706]]},{"inputs":[0,0,1,1,1,1],"outputs":[1,0,0,0],"biases":[-0.30051215140983956,0.12801966836962014,-0.34656139299378325,0.0805806249839145],"weights":[[-0.7863430811870297,-0.20395532300410452,0.8854023877043204,-0.6957373537484967],[0.4938210501262499,0.73586069392136,-0.4770995022295179,0.6867208774340262],[-0.6674115621946598,-0.2690171611001212,-0.5192978798432747,-0.4269433650512008],[0.3544272032166381,-0.15294636223524974,-0.6962187518135853,-0.3740560056070615],[-0.2016587573146752,0.3390725973737987,0.44671206738503944,-0.11636055288869789],[0.5687616643506214,-0.023588909853894738,0.3604491645521856,-0.35472237382032873]]}]}
