const defaultBrain = {"levels":[{"inputs":[0.18916027643611943,0,0,0,0.11523782596516485],"outputs":[0,0,1,1,0,1],"biases":[0.6992294743527809,0.2728637080753603,-0.27393062009848773,-0.6486196252548504,0.1807314767316986,-0.49478778232662024],"weights":[[-0.46907712578997746,-0.7199747581323405,-0.3162644207171511,-0.7838132101192612,-0.008770314254607559,-0.5683773106821172],[-0.4139219774413974,0.4871598284570082,0.2815656106402111,-0.6794033823650805,-0.4910387792083666,0.6114692018130409],[-0.0038878114621962306,0.6598833003672556,0.361579453150118,-0.5209106434064582,0.8340102569820939,0.007637877444807706],[0.277227794735311,0.42586631846045214,0.5047851034214804,0.2482985312073315,0.20838672371606884,-0.06811746327467046],[-0.031904779561049895,0.36830262927681046,0.6234276441265295,-0.2763857082283512,0.14208517651349728,0.5287873206320659]]},{"inputs":[0,0,1,1,0,1],"outputs":[1,0,0,0],"biases":[-0.23368141193646358,0.10501216568936747,-0.3025315309700124,0.01680207321992247],"weights":[[-0.7681721651845578,-0.23374829389055313,0.8888450033625118,-0.6905433583178524],[0.6535054383181768,0.808442429521811,-0.4271999206566585,0.7446819978867153],[-0.8335302487775947,-0.39751278295943226,-0.6781412938310531,-0.48040904345113244],[0.30891600673670816,-0.14842789409682777,-0.7230400964574102,-0.46323706266894166],[-0.28562963102458694,0.34374082559646235,0.5760824638481181,-0.1106378299117794],[0.6736051537901198,-0.0635023952532198,0.4935698421817219,-0.4643915370508242]]}]};
