const defaultBrain = {"levels":[{"inputs":[0,0,0,0,0.654772683903527],"outputs":[0,0,1,1,0,1],"biases":[0.5268693424833032,0.21972194499621683,-0.19946245502580823,-0.5697423694796415,0.17745232283969828,-0.3943563487510694],"weights":[[-0.39426242830771263,-0.49829512126540454,-0.37108918883630915,-0.5117317257079999,0.02832661321597337,-0.3046695239165121],[-0.22334505610727537,0.3219972541407572,0.18130178088338705,-0.5598688321957278,-0.5100371073533662,0.5283238172511094],[0.022294190203762977,0.4958323476290986,0.3862338001049427,-0.3581259072792218,0.7685014676655345,-0.063614938774281],[0.2612277116086982,0.3644766560163656,0.4322276527839637,0.2140048522533008,0.2769931432478149,-0.055810555336559264],[0.05513897627853525,0.2793828162928177,0.5856759311434268,-0.16792375634952944,0.061463753967284485,0.29962478643307616]]},{"inputs":[0,0,1,1,0,1],"outputs":[1,0,0,0],"biases":[-0.2778212886369921,0.07996699045571587,-0.40696002003179954,0.12959514511429313],"weights":[[-0.6212050496299367,-0.24838811402587083,0.8016157688935932,-0.5982755817951795],[0.44629085322868944,0.7067730108657303,-0.5290804845256056,0.5743197214066789],[-0.6889989516484699,-0.2925406055256186,-0.5509072882807762,-0.41060471345317534],[0.3653299060571269,-0.17661564782748174,-0.5852060223691068,-0.3504801231492475],[-0.26534951655385247,0.2255729756813269,0.5011432370884067,-0.14354582132455498],[0.6030184312072775,-0.06568888517465843,0.27962325362244156,-0.3236873092311207]]}]}